<?xml version="1.0"?>
<!-- DTD for the XMLBIF 0.3 format -->
<!DOCTYPE BIF [
	<!ELEMENT BIF ( NETWORK )*>
	      <!ATTLIST BIF VERSION CDATA #REQUIRED>
	<!ELEMENT NETWORK ( NAME, ( PROPERTY | VARIABLE | DEFINITION )* )>
	<!ELEMENT NAME (#PCDATA)>
	<!ELEMENT VARIABLE ( NAME, ( OUTCOME |  PROPERTY )* ) >
	      <!ATTLIST VARIABLE TYPE (nature|decision|utility) "nature">
	<!ELEMENT OUTCOME (#PCDATA)>
	<!ELEMENT DEFINITION ( FOR | GIVEN | TABLE | PROPERTY )* >
	<!ELEMENT FOR (#PCDATA)>
	<!ELEMENT GIVEN (#PCDATA)>
	<!ELEMENT TABLE (#PCDATA)>
	<!ELEMENT PROPERTY (#PCDATA)>
]>


<BIF VERSION="0.3">
<NETWORK>
<NAME>genericBIFF-weka.filters.unsupervised.attribute.ReplaceMissingValues</NAME>
<VARIABLE TYPE="nature">
<NAME>Pregnancies</NAME>
<OUTCOME>&apos;(5-7]&apos;</OUTCOME>
<OUTCOME>&apos;(9-18]&apos;</OUTCOME>
<OUTCOME>&apos;(3-5]&apos;</OUTCOME>
<OUTCOME>&apos;(0-1]&apos;</OUTCOME>
<OUTCOME>&apos;(2-3]&apos;</OUTCOME>
<OUTCOME>&apos;(1-2]&apos;</OUTCOME>
<OUTCOME>&apos;(7-9)&apos;</OUTCOME>
</VARIABLE>
<VARIABLE TYPE="nature">
<NAME>Glucose</NAME>
<OUTCOME>&apos;(96-104]&apos;</OUTCOME>
<OUTCOME>&apos;(104-112]&apos;</OUTCOME>
<OUTCOME>&apos;(86-96]&apos;</OUTCOME>
<OUTCOME>&apos;(0-86]&apos;</OUTCOME>
<OUTCOME>&apos;(141-159]&apos;</OUTCOME>
<OUTCOME>&apos;(159-200]&apos;</OUTCOME>
<OUTCOME>&apos;(121-129]&apos;</OUTCOME>
<OUTCOME>&apos;(129-141]&apos;</OUTCOME>
<OUTCOME>&apos;(112-121)&apos;</OUTCOME>
</VARIABLE>
<VARIABLE TYPE="nature">
<NAME>BloodPressure</NAME>
<OUTCOME>&apos;(0-55]&apos;</OUTCOME>
<OUTCOME>&apos;(68-72]&apos;</OUTCOME>
<OUTCOME>&apos;(55-64]&apos;</OUTCOME>
<OUTCOME>&apos;(80-85]&apos;</OUTCOME>
<OUTCOME>&apos;(85-123]&apos;</OUTCOME>
<OUTCOME>&apos;(72-75]&apos;</OUTCOME>
<OUTCOME>&apos;(64-68]&apos;</OUTCOME>
<OUTCOME>&apos;(75-80)&apos;</OUTCOME>
</VARIABLE>
<VARIABLE TYPE="nature">
<NAME>SkinThickness</NAME>
<OUTCOME>&apos;(39-100]&apos;</OUTCOME>
<OUTCOME>&apos;(29-33]&apos;</OUTCOME>
<OUTCOME>&apos;(7-19]&apos;</OUTCOME>
<OUTCOME>&apos;(24-29]&apos;</OUTCOME>
<OUTCOME>&apos;(33-39]&apos;</OUTCOME>
<OUTCOME>&apos;(0-7]&apos;</OUTCOME>
<OUTCOME>&apos;(19-24)&apos;</OUTCOME>
</VARIABLE>
<VARIABLE TYPE="nature">
<NAME>Insulin</NAME>
<OUTCOME>&apos;(0-14]&apos;</OUTCOME>
<OUTCOME>&apos;(106-150]&apos;</OUTCOME>
<OUTCOME>&apos;(68-106]&apos;</OUTCOME>
<OUTCOME>&apos;(150-681]&apos;</OUTCOME>
<OUTCOME>&apos;(14-68)&apos;</OUTCOME>
</VARIABLE>
<VARIABLE TYPE="nature">
<NAME>BMI</NAME>
<OUTCOME>&apos;(30.2-32.2]&apos;</OUTCOME>
<OUTCOME>&apos;(35.9-38.6]&apos;</OUTCOME>
<OUTCOME>&apos;(0.0-23.8]&apos;</OUTCOME>
<OUTCOME>&apos;(23.8-26.1]&apos;</OUTCOME>
<OUTCOME>&apos;(26.1-28.3]&apos;</OUTCOME>
<OUTCOME>&apos;(38.6-67.771]&apos;</OUTCOME>
<OUTCOME>&apos;(28.3-30.2]&apos;</OUTCOME>
<OUTCOME>&apos;(32.2-33.9]&apos;</OUTCOME>
<OUTCOME>&apos;(33.9-35.9)&apos;</OUTCOME>
</VARIABLE>
<VARIABLE TYPE="nature">
<NAME>DiabetesPedigreeFunction</NAME>
<OUTCOME>&apos;(0.078-0.165]&apos;</OUTCOME>
<OUTCOME>&apos;(0.381-0.465]&apos;</OUTCOME>
<OUTCOME>&apos;(0.704-2.4442]&apos;</OUTCOME>
<OUTCOME>&apos;(0.227-0.261]&apos;</OUTCOME>
<OUTCOME>&apos;(0.305-0.381]&apos;</OUTCOME>
<OUTCOME>&apos;(0.465-0.583]&apos;</OUTCOME>
<OUTCOME>&apos;(0.583-0.704]&apos;</OUTCOME>
<OUTCOME>&apos;(0.261-0.305]&apos;</OUTCOME>
<OUTCOME>&apos;(0.165-0.227)&apos;</OUTCOME>
</VARIABLE>
<VARIABLE TYPE="nature">
<NAME>Age</NAME>
<OUTCOME>&apos;(21-23]&apos;</OUTCOME>
<OUTCOME>&apos;(23-25]&apos;</OUTCOME>
<OUTCOME>&apos;(45-82]&apos;</OUTCOME>
<OUTCOME>&apos;(27-30]&apos;</OUTCOME>
<OUTCOME>&apos;(35-40]&apos;</OUTCOME>
<OUTCOME>&apos;(25-27]&apos;</OUTCOME>
<OUTCOME>&apos;(30-35]&apos;</OUTCOME>
<OUTCOME>&apos;(40-45)&apos;</OUTCOME>
</VARIABLE>
<VARIABLE TYPE="nature">
<NAME>Outcome</NAME>
<OUTCOME>0</OUTCOME>
<OUTCOME>1</OUTCOME>
</VARIABLE>
<DEFINITION>
<FOR>Pregnancies</FOR>
<GIVEN>Outcome</GIVEN>
<TABLE>
0.14601769911504425 0.08185840707964602 0.18141592920353983 0.14601769911504425 0.17035398230088494 0.2013274336283186 0.07300884955752213 
0.13389121338912133 0.17573221757322174 0.1799163179916318 0.14225941422594143 0.0794979079497908 0.1087866108786611 0.1799163179916318 
</TABLE>
</DEFINITION>
<DEFINITION>
<FOR>Glucose</FOR>
<GIVEN>Outcome</GIVEN>
<TABLE>
0.14601769911504425 0.13495575221238937 0.14380530973451328 0.14601769911504425 0.0752212389380531 0.03982300884955752 0.10398230088495575 0.08849557522123894 0.12168141592920353 
0.04184100418410042 0.08368200836820083 0.03347280334728033 0.02510460251046025 0.17154811715481172 0.3179916317991632 0.10460251046025104 0.12552301255230125 0.09623430962343096 
</TABLE>
</DEFINITION>
<DEFINITION>
<FOR>BloodPressure</FOR>
<GIVEN>Outcome</GIVEN>
<TABLE>
0.11504424778761062 0.13053097345132744 0.17035398230088494 0.11061946902654868 0.1261061946902655 0.12389380530973451 0.1084070796460177 0.11504424778761062 
0.10460251046025104 0.13807531380753138 0.07112970711297072 0.13389121338912133 0.200836820083682 0.12133891213389121 0.09205020920502092 0.13807531380753138 
</TABLE>
</DEFINITION>
<DEFINITION>
<FOR>SkinThickness</FOR>
<GIVEN>Outcome</GIVEN>
<TABLE>
0.11061946902654868 0.12168141592920353 0.1592920353982301 0.11946902654867257 0.08849557522123894 0.27654867256637167 0.12389380530973451 
0.18410041841004185 0.1506276150627615 0.03765690376569038 0.11297071129707113 0.1297071129707113 0.3263598326359833 0.058577405857740586 
</TABLE>
</DEFINITION>
<DEFINITION>
<FOR>Insulin</FOR>
<GIVEN>Outcome</GIVEN>
<GIVEN>Glucose</GIVEN>
<TABLE>
0.36363636363636365 0.06060606060606061 0.30303030303030304 0.10606060606060606 0.16666666666666666 
0.49975 0.09975 0.19975 0.19975 0.001 
0.6065573770491803 0.13114754098360656 0.09836065573770492 0.11475409836065574 0.04918032786885246 
0.55 0.1 0.1 0.15 0.1 
0.4461538461538462 0.03076923076923077 0.24615384615384617 0.015384615384615385 0.26153846153846155 
0.37475 0.001 0.12475 0.37475 0.12475 
0.5452045454545454 0.06035606060606061 0.045204545454545456 0.001 0.34823484848484854 
0.6659166666666667 5.0E-4 0.3325833333333334 7.5E-4 0.001 
0.35294117647058826 0.17647058823529413 0.058823529411764705 0.35294117647058826 0.058823529411764705 
0.4878048780487805 0.12195121951219512 0.024390243902439025 0.34146341463414637 0.024390243902439025 
0.5555555555555556 0.05555555555555555 0.05555555555555555 0.2777777777777778 0.05555555555555555 
0.4868421052631579 0.09210526315789473 0.039473684210526314 0.3684210526315789 0.013157894736842105 
0.3617021276595745 0.14893617021276595 0.1276595744680851 0.3404255319148936 0.02127659574468085 
0.43975000000000003 0.11975 0.001 0.39975000000000005 0.03975 
0.5 0.125 0.025 0.325 0.025 
0.49975 0.2664166666666667 0.06641666666666667 0.16641666666666666 0.001 
0.509090909090909 0.10909090909090909 0.14545454545454545 0.14545454545454545 0.09090909090909091 
0.7388804347826087 0.043228260869565216 0.043228260869565216 0.17366304347826086 0.001 
</TABLE>
</DEFINITION>
<DEFINITION>
<FOR>BMI</FOR>
<GIVEN>Outcome</GIVEN>
<GIVEN>Insulin</GIVEN>
<TABLE>
0.08450704225352113 0.056338028169014086 0.19718309859154928 0.14084507042253522 0.15492957746478872 0.0892018779342723 0.107981220657277 0.07511737089201878 0.09389671361502347 
0.13821138211382114 0.10569105691056911 0.032520325203252036 0.032520325203252036 0.08130081300813008 0.2682926829268293 0.08943089430894309 0.17073170731707318 0.08130081300813008 
0.11627906976744186 0.11627906976744186 0.06976744186046512 0.13953488372093023 0.06976744186046512 0.16279069767441862 0.13953488372093023 0.09302325581395349 0.09302325581395349 
0.07407407407407407 0.18518518518518517 0.037037037037037035 0.07407407407407407 0.07407407407407407 0.18518518518518517 0.14814814814814814 0.07407407407407407 0.14814814814814814 
0.12698412698412698 0.12698412698412698 0.09523809523809523 0.14285714285714285 0.047619047619047616 0.12698412698412698 0.14285714285714285 0.09523809523809523 0.09523809523809523 
0.14260714285714288 0.14260714285714288 8.75E-4 0.001 0.07117857142857142 0.2140357142857143 0.07117857142857142 0.07117857142857142 0.2854642857142857 
0.08695652173913043 0.15942028985507245 0.043478260869565216 0.10144927536231885 0.07246376811594203 0.2318840579710145 0.08695652173913043 0.08695652173913043 0.13043478260869565 
0.11581702898550725 0.2027735507246377 0.001 0.014367753623188406 0.043353260869565216 0.2752373188405797 0.043353260869565216 0.11581702898550725 0.1882807971014493 
0.046875 0.046875 0.171875 0.1875 0.140625 0.109375 0.140625 0.09375 0.0625 
0.1662916666666667 0.1662916666666667 0.1662916666666667 7.5E-4 0.1662916666666667 0.1662916666666667 8.75E-4 0.1662916666666667 0.001 
</TABLE>
</DEFINITION>
<DEFINITION>
<FOR>DiabetesPedigreeFunction</FOR>
<GIVEN>Outcome</GIVEN>
<TABLE>
0.1172566371681416 0.11504424778761062 0.13938053097345132 0.09955752212389381 0.09513274336283185 0.09955752212389381 0.09513274336283185 0.1172566371681416 0.12168141592920353 
0.07112970711297072 0.07531380753138076 0.2594142259414226 0.11715481171548117 0.11715481171548117 0.10460251046025104 0.11297071129707113 0.0794979079497908 0.06276150627615062 
</TABLE>
</DEFINITION>
<DEFINITION>
<FOR>Age</FOR>
<GIVEN>Outcome</GIVEN>
<GIVEN>Insulin</GIVEN>
<GIVEN>Pregnancies</GIVEN>
<TABLE>
0.001 0.025498168498168498 0.33319047619047615 0.23062637362637364 0.10242124542124542 0.07678021978021979 0.17934432234432235 0.051139194139194134 
7.142857142857142E-4 8.571428571428571E-4 0.4086623376623376 0.0904805194805195 0.1813896103896104 0.001 0.0904805194805195 0.22684415584415585 
7.142857142857142E-4 8.571428571428571E-4 0.16623809523809524 0.16623809523809524 0.16623809523809524 0.16623809523809524 0.3329047619047618 0.001 
2.857142857142855E-4 4.285714285714284E-4 5.714285714285713E-4 0.499142857142857 7.142857142857142E-4 0.499142857142857 8.571428571428571E-4 0.001 
7.142857142857142E-4 0.16623809523809524 8.571428571428571E-4 0.16623809523809524 0.16623809523809524 0.001 0.3329047619047618 0.16623809523809524 
1.4285714285714265E-4 2.857142857142855E-4 4.285714285714284E-4 5.714285714285713E-4 0.9990000000000002 7.142857142857142E-4 8.571428571428571E-4 0.001 
7.142857142857142E-4 8.571428571428571E-4 0.3329047619047618 0.11068253968253969 0.11068253968253969 0.001 0.2217936507936508 0.2217936507936508 
5.714285714285713E-4 7.142857142857142E-4 0.570857142857143 0.1422857142857143 8.571428571428571E-4 0.001 0.1422857142857143 0.1422857142857143 
5.714285714285713E-4 0.1660952380952381 7.142857142857142E-4 8.571428571428571E-4 0.1660952380952381 0.001 0.33276190476190465 0.33276190476190465 
0.125 0.125 0.125 0.125 0.125 0.125 0.125 0.125 
7.142857142857142E-4 8.571428571428571E-4 0.34572527472527464 0.038032967032967026 0.23034065934065936 0.001 0.11495604395604397 0.2688021978021977 
7.142857142857142E-4 8.571428571428571E-4 0.34739751552795023 0.04304968944099378 0.17348447204968945 0.001 0.13000621118012423 0.30391925465838504 
2.857142857142855E-4 4.285714285714284E-4 0.3324761904761903 5.714285714285713E-4 0.665809523809524 7.142857142857142E-4 8.571428571428571E-4 0.001 
2.857142857142855E-4 4.285714285714284E-4 0.42771428571428555 5.714285714285713E-4 7.142857142857142E-4 8.571428571428571E-4 0.001 0.5705714285714287 
2.857142857142855E-4 4.285714285714284E-4 0.665809523809524 5.714285714285713E-4 7.142857142857142E-4 8.571428571428571E-4 0.001 0.3324761904761903 
0.125 0.125 0.125 0.125 0.125 0.125 0.125 0.125 
2.857142857142855E-4 4.285714285714284E-4 0.499142857142857 5.714285714285713E-4 7.142857142857142E-4 8.571428571428571E-4 0.499142857142857 0.001 
5.714285714285713E-4 7.142857142857142E-4 0.544883116883117 8.571428571428571E-4 0.18124675324675327 0.001 0.09033766233766236 0.18124675324675327 
1.4285714285714265E-4 2.857142857142855E-4 0.9990000000000002 4.285714285714284E-4 5.714285714285713E-4 7.142857142857142E-4 8.571428571428571E-4 0.001 
1.4285714285714265E-4 2.857142857142855E-4 4.285714285714284E-4 5.714285714285713E-4 7.142857142857142E-4 8.571428571428571E-4 0.001 0.9990000000000002 
0.125 0.125 0.1 0.15 0.15 0.1 0.175 0.075 
0.09090909090909091 0.09090909090909091 0.18181818181818182 0.09090909090909091 0.13636363636363635 0.18181818181818182 0.18181818181818182 0.045454545454545456 
7.142857142857142E-4 0.11068253968253969 8.571428571428571E-4 0.11068253968253969 0.3329047619047618 0.2217936507936508 0.2217936507936508 0.001 
4.285714285714284E-4 5.714285714285713E-4 0.3326190476190475 0.3326190476190475 7.142857142857142E-4 8.571428571428571E-4 0.3326190476190475 0.001 
0.07649450549450551 0.15341758241758244 7.142857142857142E-4 0.3072637362637362 0.15341758241758244 0.3072637362637362 8.571428571428571E-4 0.001 
4.285714285714284E-4 5.714285714285713E-4 7.142857142857142E-4 0.3992857142857142 8.571428571428571E-4 0.3992857142857142 0.19928571428571432 0.001 
0.09033766233766236 0.27215584415584404 5.714285714285713E-4 0.363064935064935 7.142857142857142E-4 8.571428571428571E-4 0.27215584415584404 0.001 
0.08304761904761905 8.571428571428571E-4 0.16638095238095238 0.16638095238095238 0.24971428571428572 0.08304761904761905 0.24971428571428572 0.001 
0.4440158730158729 0.11068253968253969 7.142857142857142E-4 0.2217936507936508 8.571428571428571E-4 0.11068253968253969 0.11068253968253969 0.001 
1.4285714285714265E-4 0.9990000000000002 2.857142857142855E-4 4.285714285714284E-4 5.714285714285713E-4 7.142857142857142E-4 8.571428571428571E-4 0.001 
0.3665238095238095 0.09985714285714287 0.16652380952380952 0.1331904761904762 0.001 0.1331904761904762 0.06652380952380953 0.03319047619047619 
0.058823529411764705 0.17647058823529413 0.11764705882352941 0.11764705882352941 0.11764705882352941 0.23529411764705882 0.11764705882352941 0.058823529411764705 
0.49942857142857133 0.24942857142857144 5.714285714285713E-4 7.142857142857142E-4 8.571428571428571E-4 0.12442857142857144 0.12442857142857144 0.001 
2.857142857142855E-4 0.499142857142857 4.285714285714284E-4 5.714285714285713E-4 7.142857142857142E-4 0.499142857142857 8.571428571428571E-4 0.001 
0.45411688311688303 0.1813896103896104 7.142857142857142E-4 0.0904805194805195 0.0904805194805195 0.1813896103896104 8.571428571428571E-4 0.001 
2.857142857142855E-4 4.285714285714284E-4 5.714285714285713E-4 7.142857142857142E-4 0.3324761904761903 0.665809523809524 8.571428571428571E-4 0.001 
0.2722987012987012 0.2722987012987012 0.0904805194805195 0.1813896103896104 7.142857142857142E-4 0.1813896103896104 8.571428571428571E-4 0.001 
0.2217936507936508 0.11068253968253969 7.142857142857142E-4 0.11068253968253969 8.571428571428571E-4 0.2217936507936508 0.3329047619047618 0.001 
0.6659523809523811 0.16595238095238096 4.285714285714284E-4 5.714285714285713E-4 7.142857142857142E-4 0.16595238095238096 8.571428571428571E-4 0.001 
0.3326190476190475 0.3326190476190475 4.285714285714284E-4 5.714285714285713E-4 7.142857142857142E-4 0.3326190476190475 8.571428571428571E-4 0.001 
0.38681105990783404 0.12874654377880185 0.09648847926267282 0.1932626728110599 8.571428571428571E-4 0.12874654377880185 0.001 0.06423041474654378 
0.1422857142857143 0.1422857142857143 0.4279999999999999 0.28514285714285703 5.714285714285713E-4 7.142857142857142E-4 8.571428571428571E-4 0.001 
0.24957142857142858 0.24957142857142858 7.142857142857142E-4 0.12457142857142858 8.571428571428571E-4 0.12457142857142858 0.24957142857142858 0.001 
2.857142857142855E-4 0.665809523809524 4.285714285714284E-4 5.714285714285713E-4 7.142857142857142E-4 0.3324761904761903 8.571428571428571E-4 0.001 
0.49942857142857133 0.24942857142857144 5.714285714285713E-4 0.08276190476190477 7.142857142857142E-4 0.1660952380952381 8.571428571428571E-4 0.001 
1.4285714285714265E-4 2.857142857142855E-4 4.285714285714284E-4 0.9990000000000002 5.714285714285713E-4 7.142857142857142E-4 8.571428571428571E-4 0.001 
0.33276190476190465 5.714285714285713E-4 7.142857142857142E-4 0.24942857142857144 8.571428571428571E-4 0.33276190476190465 0.08276190476190477 0.001 
7.142857142857142E-4 0.14242857142857143 0.14242857142857143 0.2852857142857142 8.571428571428571E-4 0.14242857142857143 0.2852857142857142 0.001 
0.4995714285714285 0.21385714285714286 7.142857142857142E-4 0.07100000000000001 8.571428571428571E-4 0.14242857142857143 0.07100000000000001 0.001 
0.125 0.125 0.125 0.125 0.125 0.125 0.125 0.125 
0.5383186813186813 0.15370329670329672 0.03831868131868132 0.11524175824175825 0.03831868131868132 0.07678021978021979 0.03831868131868132 0.001 
0.22193650793650793 8.571428571428571E-4 0.22193650793650793 0.11082539682539683 0.11082539682539683 0.001 0.11082539682539683 0.22193650793650793 
0.49942857142857133 0.1660952380952381 5.714285714285713E-4 0.1660952380952381 7.142857142857142E-4 0.1660952380952381 8.571428571428571E-4 0.001 
5.714285714285713E-4 7.142857142857142E-4 0.19942857142857146 8.571428571428571E-4 0.19942857142857146 0.001 0.19942857142857146 0.39942857142857136 
0.42814285714285705 0.21385714285714286 7.142857142857142E-4 0.21385714285714286 0.07100000000000001 8.571428571428571E-4 0.07100000000000001 0.001 
2.857142857142855E-4 4.285714285714284E-4 5.714285714285713E-4 7.142857142857142E-4 8.571428571428571E-4 0.499142857142857 0.499142857142857 0.001 
0.39942857142857136 0.3494285714285713 5.714285714285713E-4 7.142857142857142E-4 8.571428571428571E-4 0.14942857142857144 0.001 0.09942857142857145 
8.571428571428571E-4 0.11082539682539683 0.11082539682539683 0.333047619047619 0.11082539682539683 0.001 0.22193650793650793 0.11082539682539683 
0.3197142857142857 0.2797142857142857 0.03971428571428571 0.07971428571428572 8.571428571428571E-4 0.2397142857142857 0.03971428571428571 0.001 
1.4285714285714265E-4 2.857142857142855E-4 4.285714285714284E-4 5.714285714285713E-4 7.142857142857142E-4 8.571428571428571E-4 0.9990000000000002 0.001 
7.142857142857142E-4 0.04719047619047618 0.47576190476190466 8.571428571428571E-4 0.19004761904761905 0.001 0.04719047619047618 0.23766666666666666 
0.043192546583850924 8.571428571428571E-4 0.1736273291925466 0.043192546583850924 0.2171055900621118 0.001 0.2171055900621118 0.3040621118012422 
2.857142857142855E-4 4.285714285714284E-4 0.665809523809524 5.714285714285713E-4 7.142857142857142E-4 8.571428571428571E-4 0.3324761904761903 0.001 
5.714285714285713E-4 7.142857142857142E-4 0.39942857142857136 8.571428571428571E-4 0.19942857142857146 0.001 0.19942857142857146 0.19942857142857146 
4.285714285714284E-4 5.714285714285713E-4 0.2492857142857143 7.142857142857142E-4 0.49928571428571417 8.571428571428571E-4 0.001 0.2492857142857143 
1.4285714285714265E-4 2.857142857142855E-4 4.285714285714284E-4 5.714285714285713E-4 7.142857142857142E-4 8.571428571428571E-4 0.9990000000000002 0.001 
4.285714285714284E-4 5.714285714285713E-4 0.2492857142857143 7.142857142857142E-4 0.49928571428571417 8.571428571428571E-4 0.001 0.2492857142857143 
5.714285714285713E-4 7.142857142857142E-4 0.3565714285714285 8.571428571428571E-4 0.21371428571428572 0.001 0.07085714285714287 0.3565714285714285 
1.4285714285714265E-4 2.857142857142855E-4 4.285714285714284E-4 5.714285714285713E-4 7.142857142857142E-4 8.571428571428571E-4 0.001 0.9990000000000002 
0.125 0.125 0.125 0.125 0.125 0.125 0.125 0.125 
</TABLE>
</DEFINITION>
<DEFINITION>
<FOR>Outcome</FOR>
<TABLE>
0.6541244573082489 0.3458755426917511 
</TABLE>
</DEFINITION>
</NETWORK>
</BIF>
