<?xml version="1.0"?>
<!-- DTD for the XMLBIF 0.3 format -->
<!DOCTYPE BIF [
	<!ELEMENT BIF ( NETWORK )*>
	      <!ATTLIST BIF VERSION CDATA #REQUIRED>
	<!ELEMENT NETWORK ( NAME, ( PROPERTY | VARIABLE | DEFINITION )* )>
	<!ELEMENT NAME (#PCDATA)>
	<!ELEMENT VARIABLE ( NAME, ( OUTCOME |  PROPERTY )* ) >
	      <!ATTLIST VARIABLE TYPE (nature|decision|utility) "nature">
	<!ELEMENT OUTCOME (#PCDATA)>
	<!ELEMENT DEFINITION ( FOR | GIVEN | TABLE | PROPERTY )* >
	<!ELEMENT FOR (#PCDATA)>
	<!ELEMENT GIVEN (#PCDATA)>
	<!ELEMENT TABLE (#PCDATA)>
	<!ELEMENT PROPERTY (#PCDATA)>
]>


<BIF VERSION="0.3">
<NETWORK>
<NAME>genericBIFF-weka.filters.unsupervised.attribute.ReplaceMissingValues</NAME>
<VARIABLE TYPE="nature">
<NAME>sepallength</NAME>
<OUTCOME>&apos;(4.3-4.3999999999999995]&apos;</OUTCOME>
<OUTCOME>&apos;(5.299999999999996-5.399999999999996]&apos;</OUTCOME>
<OUTCOME>&apos;(5.999999999999994-6.099999999999993]&apos;</OUTCOME>
<OUTCOME>&apos;(6.599999999999992-6.699999999999991]&apos;</OUTCOME>
<OUTCOME>&apos;(6.99999999999999-7.09999999999999]&apos;</OUTCOME>
<OUTCOME>&apos;(4.999999999999997-5.099999999999997]&apos;</OUTCOME>
<OUTCOME>&apos;(4.699999999999998-4.799999999999998]&apos;</OUTCOME>
<OUTCOME>&apos;(6.699999999999991-6.799999999999991]&apos;</OUTCOME>
<OUTCOME>&apos;(7.1999999999999895-7.299999999999989]&apos;</OUTCOME>
<OUTCOME>&apos;(6.399999999999992-6.499999999999992]&apos;</OUTCOME>
<OUTCOME>&apos;(5.599999999999995-5.699999999999995]&apos;</OUTCOME>
<OUTCOME>&apos;(4.599999999999999-4.699999999999998]&apos;</OUTCOME>
<OUTCOME>&apos;(5.899999999999994-5.999999999999994]&apos;</OUTCOME>
<OUTCOME>&apos;(4.899999999999998-4.999999999999997]&apos;</OUTCOME>
<OUTCOME>&apos;(6.099999999999993-6.199999999999993]&apos;</OUTCOME>
<OUTCOME>&apos;(6.199999999999993-6.299999999999993]&apos;</OUTCOME>
<OUTCOME>&apos;(7.09999999999999-7.1999999999999895]&apos;</OUTCOME>
<OUTCOME>&apos;(6.799999999999991-6.899999999999991]&apos;</OUTCOME>
<OUTCOME>&apos;(7.299999999999989-7.399999999999989]&apos;</OUTCOME>
<OUTCOME>&apos;(5.7999999999999945-5.899999999999994]&apos;</OUTCOME>
<OUTCOME>&apos;(5.699999999999995-5.7999999999999945]&apos;</OUTCOME>
<OUTCOME>&apos;(6.299999999999993-6.399999999999992]&apos;</OUTCOME>
<OUTCOME>&apos;(4.499999999999999-4.599999999999999]&apos;</OUTCOME>
<OUTCOME>&apos;(7.599999999999988-7.699999999999988]&apos;</OUTCOME>
<OUTCOME>&apos;(5.099999999999997-5.199999999999997]&apos;</OUTCOME>
<OUTCOME>&apos;(6.899999999999991-6.99999999999999]&apos;</OUTCOME>
<OUTCOME>&apos;(7.799999999999987-7.899999999999987]&apos;</OUTCOME>
<OUTCOME>&apos;(5.199999999999997-5.299999999999996]&apos;</OUTCOME>
<OUTCOME>&apos;(5.499999999999996-5.599999999999995]&apos;</OUTCOME>
<OUTCOME>&apos;(6.499999999999992-6.599999999999992]&apos;</OUTCOME>
<OUTCOME>&apos;(4.3999999999999995-4.499999999999999]&apos;</OUTCOME>
<OUTCOME>&apos;(4.799999999999998-4.899999999999998]&apos;</OUTCOME>
<OUTCOME>&apos;(7.699999999999988-7.799999999999987]&apos;</OUTCOME>
<OUTCOME>&apos;(7.399999999999989-7.4999999999999885]&apos;</OUTCOME>
<OUTCOME>&apos;(5.399999999999996-5.499999999999996]&apos;</OUTCOME>
<OUTCOME>&apos;(7.4999999999999885-7.599999999999988)&apos;</OUTCOME>
</VARIABLE>
<VARIABLE TYPE="nature">
<NAME>sepalwidth</NAME>
<OUTCOME>&apos;(2.0-2.1]&apos;</OUTCOME>
<OUTCOME>&apos;(2.2-2.3000000000000003]&apos;</OUTCOME>
<OUTCOME>&apos;(2.1-2.2)&apos;</OUTCOME>
</VARIABLE>
<VARIABLE TYPE="nature">
<NAME>petallength</NAME>
<OUTCOME>&apos;(1.8000000000000007-1.9000000000000008]&apos;</OUTCOME>
<OUTCOME>&apos;(3.400000000000002-3.500000000000002]&apos;</OUTCOME>
<OUTCOME>&apos;(4.7-4.8]&apos;</OUTCOME>
<OUTCOME>&apos;(5.499999999999997-5.599999999999997]&apos;</OUTCOME>
<OUTCOME>&apos;(6.699999999999993-6.799999999999993]&apos;</OUTCOME>
<OUTCOME>&apos;(2.9000000000000017-3.0000000000000018]&apos;</OUTCOME>
<OUTCOME>&apos;(3.7000000000000024-3.8000000000000025]&apos;</OUTCOME>
<OUTCOME>&apos;(3.8000000000000025-3.9000000000000026]&apos;</OUTCOME>
<OUTCOME>&apos;(6.199999999999995-6.2999999999999945]&apos;</OUTCOME>
<OUTCOME>&apos;(3.6000000000000023-3.7000000000000024]&apos;</OUTCOME>
<OUTCOME>&apos;(2.6000000000000014-2.7000000000000015]&apos;</OUTCOME>
<OUTCOME>&apos;(1.6000000000000005-1.7000000000000006]&apos;</OUTCOME>
<OUTCOME>&apos;(2.5000000000000013-2.6000000000000014]&apos;</OUTCOME>
<OUTCOME>&apos;(2.200000000000001-2.300000000000001]&apos;</OUTCOME>
<OUTCOME>&apos;(1.3000000000000003-1.4000000000000004]&apos;</OUTCOME>
<OUTCOME>&apos;(6.599999999999993-6.699999999999993]&apos;</OUTCOME>
<OUTCOME>&apos;(1.1-1.2000000000000002]&apos;</OUTCOME>
<OUTCOME>&apos;(5.399999999999998-5.499999999999997]&apos;</OUTCOME>
<OUTCOME>&apos;(5.899999999999996-5.999999999999996]&apos;</OUTCOME>
<OUTCOME>&apos;(4.999999999999999-5.099999999999999]&apos;</OUTCOME>
<OUTCOME>&apos;(6.499999999999994-6.599999999999993]&apos;</OUTCOME>
<OUTCOME>&apos;(4.200000000000002-4.300000000000002]&apos;</OUTCOME>
<OUTCOME>&apos;(2.100000000000001-2.200000000000001]&apos;</OUTCOME>
<OUTCOME>&apos;(5.999999999999996-6.099999999999995]&apos;</OUTCOME>
<OUTCOME>&apos;(4.8-4.8999999999999995]&apos;</OUTCOME>
<OUTCOME>&apos;(5.199999999999998-5.299999999999998]&apos;</OUTCOME>
<OUTCOME>&apos;(6.2999999999999945-6.399999999999994]&apos;</OUTCOME>
<OUTCOME>&apos;(4.500000000000001-4.6000000000000005]&apos;</OUTCOME>
<OUTCOME>&apos;(1.0-1.1]&apos;</OUTCOME>
<OUTCOME>&apos;(4.000000000000003-4.100000000000002]&apos;</OUTCOME>
<OUTCOME>&apos;(2.4000000000000012-2.5000000000000013]&apos;</OUTCOME>
<OUTCOME>&apos;(6.799999999999993-6.899999999999992]&apos;</OUTCOME>
<OUTCOME>&apos;(4.300000000000002-4.400000000000001]&apos;</OUTCOME>
<OUTCOME>&apos;(1.4000000000000004-1.5000000000000004]&apos;</OUTCOME>
<OUTCOME>&apos;(4.100000000000002-4.200000000000002]&apos;</OUTCOME>
<OUTCOME>&apos;(4.6000000000000005-4.7]&apos;</OUTCOME>
<OUTCOME>&apos;(1.9000000000000008-2.000000000000001]&apos;</OUTCOME>
<OUTCOME>&apos;(2.7000000000000015-2.8000000000000016]&apos;</OUTCOME>
<OUTCOME>&apos;(5.799999999999996-5.899999999999996]&apos;</OUTCOME>
<OUTCOME>&apos;(1.2000000000000002-1.3000000000000003]&apos;</OUTCOME>
<OUTCOME>&apos;(5.699999999999997-5.799999999999996]&apos;</OUTCOME>
<OUTCOME>&apos;(1.7000000000000006-1.8000000000000007]&apos;</OUTCOME>
<OUTCOME>&apos;(3.500000000000002-3.6000000000000023]&apos;</OUTCOME>
<OUTCOME>&apos;(2.8000000000000016-2.9000000000000017]&apos;</OUTCOME>
<OUTCOME>&apos;(2.300000000000001-2.4000000000000012]&apos;</OUTCOME>
<OUTCOME>&apos;(4.8999999999999995-4.999999999999999]&apos;</OUTCOME>
<OUTCOME>&apos;(1.5000000000000004-1.6000000000000005]&apos;</OUTCOME>
<OUTCOME>&apos;(3.200000000000002-3.300000000000002]&apos;</OUTCOME>
<OUTCOME>&apos;(3.9000000000000026-4.000000000000003]&apos;</OUTCOME>
<OUTCOME>&apos;(2.000000000000001-2.100000000000001]&apos;</OUTCOME>
<OUTCOME>&apos;(3.300000000000002-3.400000000000002]&apos;</OUTCOME>
<OUTCOME>&apos;(6.399999999999994-6.499999999999994]&apos;</OUTCOME>
<OUTCOME>&apos;(5.099999999999999-5.199999999999998]&apos;</OUTCOME>
<OUTCOME>&apos;(5.299999999999998-5.399999999999998]&apos;</OUTCOME>
<OUTCOME>&apos;(3.0000000000000018-3.100000000000002]&apos;</OUTCOME>
<OUTCOME>&apos;(5.599999999999997-5.699999999999997]&apos;</OUTCOME>
<OUTCOME>&apos;(3.100000000000002-3.200000000000002]&apos;</OUTCOME>
<OUTCOME>&apos;(6.099999999999995-6.199999999999995]&apos;</OUTCOME>
<OUTCOME>&apos;(4.400000000000001-4.500000000000001)&apos;</OUTCOME>
</VARIABLE>
<VARIABLE TYPE="nature">
<NAME>petalwidth</NAME>
<OUTCOME>&apos;(0.8999999999999999-0.9999999999999999]&apos;</OUTCOME>
<OUTCOME>&apos;(1.6000000000000003-1.7000000000000004]&apos;</OUTCOME>
<OUTCOME>&apos;(2.3000000000000007-2.400000000000001]&apos;</OUTCOME>
<OUTCOME>&apos;(2.400000000000001-2.500000000000001]&apos;</OUTCOME>
<OUTCOME>&apos;(0.1-0.2]&apos;</OUTCOME>
<OUTCOME>&apos;(0.2-0.30000000000000004]&apos;</OUTCOME>
<OUTCOME>&apos;(0.30000000000000004-0.4]&apos;</OUTCOME>
<OUTCOME>&apos;(0.9999999999999999-1.0999999999999999]&apos;</OUTCOME>
<OUTCOME>&apos;(0.7-0.7999999999999999]&apos;</OUTCOME>
<OUTCOME>&apos;(0.4-0.5]&apos;</OUTCOME>
<OUTCOME>&apos;(2.1000000000000005-2.2000000000000006]&apos;</OUTCOME>
<OUTCOME>&apos;(1.3-1.4000000000000001]&apos;</OUTCOME>
<OUTCOME>&apos;(1.9000000000000006-2.0000000000000004]&apos;</OUTCOME>
<OUTCOME>&apos;(0.7999999999999999-0.8999999999999999]&apos;</OUTCOME>
<OUTCOME>&apos;(1.2-1.3]&apos;</OUTCOME>
<OUTCOME>&apos;(1.5000000000000002-1.6000000000000003]&apos;</OUTCOME>
<OUTCOME>&apos;(2.0000000000000004-2.1000000000000005]&apos;</OUTCOME>
<OUTCOME>&apos;(0.6-0.7]&apos;</OUTCOME>
<OUTCOME>&apos;(1.4000000000000001-1.5000000000000002]&apos;</OUTCOME>
<OUTCOME>&apos;(0.5-0.6]&apos;</OUTCOME>
<OUTCOME>&apos;(1.7000000000000004-1.8000000000000005]&apos;</OUTCOME>
<OUTCOME>&apos;(1.8000000000000005-1.9000000000000006]&apos;</OUTCOME>
<OUTCOME>&apos;(1.0999999999999999-1.2]&apos;</OUTCOME>
<OUTCOME>&apos;(2.2000000000000006-2.3000000000000007)&apos;</OUTCOME>
</VARIABLE>
<VARIABLE TYPE="nature">
<NAME>label</NAME>
<OUTCOME>Iris-versicolor</OUTCOME>
<OUTCOME>Iris-virginica</OUTCOME>
<OUTCOME>Iris-setosa</OUTCOME>
</VARIABLE>
<DEFINITION>
<FOR>sepallength</FOR>
<GIVEN>label</GIVEN>
<TABLE>
5.714285714285713E-4 5.999999999999998E-4 0.06476024844720489 0.043021118012422394 0.02128198757763973 0.043021118012422394 6.285714285714284E-4 0.043021118012422394 6.57142857142857E-4 0.043021118012422394 0.1082385093167701 6.857142857142856E-4 0.043021118012422394 0.02128198757763973 0.06476024844720489 0.043021118012422394 7.142857142857142E-4 0.02128198757763973 7.428571428571428E-4 0.06476024844720489 0.1082385093167701 0.06476024844720489 7.714285714285713E-4 7.999999999999999E-4 0.02128198757763973 0.02128198757763973 8.285714285714285E-4 0.02128198757763973 0.1082385093167701 0.02128198757763973 8.571428571428571E-4 8.857142857142857E-4 9.142857142857143E-4 9.428571428571429E-4 9.714285714285714E-4 0.001 
0.027777777777777776 0.027777777777777776 0.027777777777777776 0.027777777777777776 0.027777777777777776 0.027777777777777776 0.027777777777777776 0.027777777777777776 0.027777777777777776 0.027777777777777776 0.027777777777777776 0.027777777777777776 0.027777777777777776 0.027777777777777776 0.027777777777777776 0.027777777777777776 0.027777777777777776 0.027777777777777776 0.027777777777777776 0.027777777777777776 0.027777777777777776 0.027777777777777776 0.027777777777777776 0.027777777777777776 0.027777777777777776 0.027777777777777776 0.027777777777777776 0.027777777777777776 0.027777777777777776 0.027777777777777776 0.027777777777777776 0.027777777777777776 0.027777777777777776 0.027777777777777776 0.027777777777777776 0.027777777777777776 
0.019808163265306093 0.019808163265306093 4.2857142857142833E-4 4.571428571428569E-4 4.857142857142855E-4 0.16266530612244887 0.04021632653061229 5.142857142857141E-4 5.428571428571427E-4 5.714285714285713E-4 5.999999999999998E-4 0.08103265306122438 6.285714285714284E-4 0.08103265306122438 6.57142857142857E-4 6.857142857142856E-4 7.142857142857142E-4 7.428571428571428E-4 7.714285714285713E-4 0.019808163265306093 0.04021632653061229 7.999999999999999E-4 0.019808163265306093 8.285714285714285E-4 0.16266530612244887 8.571428571428571E-4 8.857142857142857E-4 0.06062448979591841 0.04021632653061229 9.142857142857143E-4 0.06062448979591841 0.10144081632653051 9.428571428571429E-4 9.714285714285714E-4 0.08103265306122438 0.001 
</TABLE>
</DEFINITION>
<DEFINITION>
<FOR>sepalwidth</FOR>
<GIVEN>label</GIVEN>
<TABLE>
0.3333333333333333 0.3333333333333333 0.3333333333333333 
0.3333333333333333 0.3333333333333333 0.3333333333333333 
0.3333333333333333 0.3333333333333333 0.3333333333333333 
</TABLE>
</DEFINITION>
<DEFINITION>
<FOR>petallength</FOR>
<GIVEN>label</GIVEN>
<TABLE>
3.1034482758620686E-4 0.04277136431784094 0.06451049475262355 3.275862068965517E-4 3.448275862068965E-4 0.021032233883058474 0.021032233883058474 0.06451049475262355 3.6206896551724136E-4 0.021032233883058474 3.793103448275862E-4 3.96551724137931E-4 4.1379310344827585E-4 4.310344827586207E-4 4.482758620689655E-4 4.6551724137931035E-4 4.827586206896552E-4 5.0E-4 5.172413793103448E-4 0.021032233883058474 5.344827586206897E-4 0.04277136431784094 5.517241379310345E-4 5.689655172413793E-4 0.04277136431784094 5.862068965517242E-4 6.03448275862069E-4 0.06451049475262355 6.206896551724138E-4 0.06451049475262355 6.379310344827587E-4 6.551724137931035E-4 0.08624962518740616 6.724137931034483E-4 0.08624962518740616 6.896551724137932E-4 7.06896551724138E-4 7.241379310344828E-4 7.413793103448277E-4 7.586206896551725E-4 7.758620689655173E-4 7.931034482758621E-4 0.021032233883058474 8.10344827586207E-4 8.275862068965518E-4 0.04277136431784094 8.448275862068966E-4 0.04277136431784094 0.10798875562218876 8.620689655172415E-4 8.793103448275863E-4 8.965517241379311E-4 9.13793103448276E-4 9.310344827586208E-4 9.482758620689656E-4 9.655172413793105E-4 9.827586206896553E-4 0.001 0.12972788605697194 
0.01694915254237288 0.01694915254237288 0.01694915254237288 0.01694915254237288 0.01694915254237288 0.01694915254237288 0.01694915254237288 0.01694915254237288 0.01694915254237288 0.01694915254237288 0.01694915254237288 0.01694915254237288 0.01694915254237288 0.01694915254237288 0.01694915254237288 0.01694915254237288 0.01694915254237288 0.01694915254237288 0.01694915254237288 0.01694915254237288 0.01694915254237288 0.01694915254237288 0.01694915254237288 0.01694915254237288 0.01694915254237288 0.01694915254237288 0.01694915254237288 0.01694915254237288 0.01694915254237288 0.01694915254237288 0.01694915254237288 0.01694915254237288 0.01694915254237288 0.01694915254237288 0.01694915254237288 0.01694915254237288 0.01694915254237288 0.01694915254237288 0.01694915254237288 0.01694915254237288 0.01694915254237288 0.01694915254237288 0.01694915254237288 0.01694915254237288 0.01694915254237288 0.01694915254237288 0.01694915254237288 0.01694915254237288 0.01694915254237288 0.01694915254237288 0.01694915254237288 0.01694915254237288 0.01694915254237288 0.01694915254237288 0.01694915254237288 0.01694915254237288 0.01694915254237288 0.01694915254237288 0.01694915254237288 
0.039937016185784484 1.3793103448275855E-4 1.5517241379310338E-4 1.724137931034482E-4 1.8965517241379304E-4 2.0689655172413787E-4 2.241379310344827E-4 2.4137931034482754E-4 2.5862068965517237E-4 2.758620689655172E-4 2.9310344827586203E-4 0.08075334271639673 3.1034482758620686E-4 3.275862068965517E-4 0.2440186488388464 3.448275862068965E-4 0.06034517945109061 3.6206896551724136E-4 3.793103448275862E-4 3.96551724137931E-4 4.1379310344827585E-4 4.310344827586207E-4 4.482758620689655E-4 4.6551724137931035E-4 4.827586206896552E-4 5.0E-4 5.172413793103448E-4 5.344827586206897E-4 0.01952885292047854 5.517241379310345E-4 5.689655172413793E-4 5.862068965517242E-4 6.03448275862069E-4 0.26442681210415114 6.206896551724138E-4 6.379310344827587E-4 6.551724137931035E-4 6.724137931034483E-4 6.896551724137932E-4 0.1419778325123158 7.06896551724138E-4 7.241379310344828E-4 7.413793103448277E-4 7.586206896551725E-4 7.758620689655173E-4 7.931034482758621E-4 0.1419778325123158 8.10344827586207E-4 8.275862068965518E-4 8.448275862068966E-4 8.620689655172415E-4 8.793103448275863E-4 8.965517241379311E-4 9.13793103448276E-4 9.310344827586208E-4 9.482758620689656E-4 9.655172413793105E-4 9.827586206896553E-4 0.001 
</TABLE>
</DEFINITION>
<DEFINITION>
<FOR>petalwidth</FOR>
<GIVEN>label</GIVEN>
<TABLE>
3.478260869565218E-4 0.021043478260869566 3.9130434782608703E-4 4.3478260869565224E-4 4.7826086956521746E-4 5.217391304347827E-4 5.652173913043479E-4 0.15147826086956528 6.086956521739131E-4 6.521739130434783E-4 6.956521739130435E-4 0.41234782608695614 7.391304347826087E-4 7.82608695652174E-4 0.10800000000000005 0.04278260869565212 8.260869565217392E-4 8.695652173913044E-4 0.17321739130434788 9.130434782608696E-4 0.021043478260869566 9.565217391304348E-4 0.06452173913043484 0.001 
5.217391304347827E-4 0.02447826086956522 0.07447826086956526 0.04947826086956518 5.652173913043479E-4 6.086956521739131E-4 6.521739130434783E-4 6.956521739130435E-4 7.391304347826087E-4 7.82608695652174E-4 0.04947826086956518 0.02447826086956522 0.09947826086956527 8.260869565217392E-4 8.695652173913044E-4 0.02447826086956522 0.09947826086956527 9.130434782608696E-4 0.04947826086956518 9.565217391304348E-4 0.22447826086956527 0.09947826086956527 0.001 0.17447826086956525 
2.1739130434782618E-4 2.608695652173914E-4 3.043478260869566E-4 3.478260869565218E-4 0.12162289263531506 0.693051464063886 3.9130434782608703E-4 4.3478260869565224E-4 4.7826086956521746E-4 0.14203105590062118 5.217391304347827E-4 5.652173913043479E-4 6.086956521739131E-4 6.521739130434783E-4 6.956521739130435E-4 7.391304347826087E-4 7.82608695652174E-4 0.019582076308784384 8.260869565217392E-4 0.019582076308784384 8.695652173913044E-4 9.130434782608696E-4 9.565217391304348E-4 0.001 
</TABLE>
</DEFINITION>
<DEFINITION>
<FOR>label</FOR>
<TABLE>
0.34074074074074073 0.2962962962962963 0.362962962962963 
</TABLE>
</DEFINITION>
</NETWORK>
</BIF>
